digraph Tree {
node [shape=box, style="filled, rounded", color="black", fontname=helvetica] ;
edge [fontname=helvetica] ;
0 [label="Sex_0 <= 0.5\nentropy = 0.956\nsamples = 1309\nvalue = [815, 494]\nclass = Died", fillcolor="#e5813964"] ;
1 [label="Has_Cabin_1 <= 0.5\nentropy = 0.556\nsamples = 843\nvalue = [734, 109]\nclass = Died", fillcolor="#e58139d9"] ;
0 -> 1 [labeldistance=2.5, labelangle=45, headlabel="True"] ;
2 [label="Age <= 0.5\nentropy = 0.446\nsamples = 689\nvalue = [625, 64]\nclass = Died", fillcolor="#e58139e5"] ;
1 -> 2 ;
3 [label="entropy = 0.722\nsamples = 75\nvalue = [60, 15]\nclass = Died", fillcolor="#e58139bf"] ;
2 -> 3 ;
4 [label="entropy = 0.401\nsamples = 614\nvalue = [565, 49]\nclass = Died", fillcolor="#e58139e9"] ;
2 -> 4 ;
5 [label="Fare <= 0.5\nentropy = 0.872\nsamples = 154\nvalue = [109, 45]\nclass = Died", fillcolor="#e5813996"] ;
1 -> 5 ;
6 [label="entropy = 0.0\nsamples = 12\nvalue = [12, 0]\nclass = Died", fillcolor="#e58139ff"] ;
5 -> 6 ;
7 [label="entropy = 0.901\nsamples = 142\nvalue = [97, 45]\nclass = Died", fillcolor="#e5813989"] ;
5 -> 7 ;
8 [label="Pclass <= 2.5\nentropy = 0.666\nsamples = 466\nvalue = [81, 385]\nclass = Survived", fillcolor="#399de5c9"] ;
0 -> 8 [labeldistance=2.5, labelangle=-45, headlabel="False"] ;
9 [label="Fare <= 2.5\nentropy = 0.224\nsamples = 250\nvalue = [9, 241]\nclass = Survived", fillcolor="#399de5f5"] ;
8 -> 9 ;
10 [label="entropy = 0.356\nsamples = 104\nvalue = [7, 97]\nclass = Survived", fillcolor="#399de5ed"] ;
9 -> 10 ;
11 [label="entropy = 0.104\nsamples = 146\nvalue = [2, 144]\nclass = Survived", fillcolor="#399de5fb"] ;
9 -> 11 ;
12 [label="FamilySize <= 4.5\nentropy = 0.918\nsamples = 216\nvalue = [72, 144]\nclass = Survived", fillcolor="#399de57f"] ;
8 -> 12 ;
13 [label="entropy = 0.828\nsamples = 184\nvalue = [48, 136]\nclass = Survived", fillcolor="#399de5a5"] ;
12 -> 13 ;
14 [label="entropy = 0.811\nsamples = 32\nvalue = [24, 8]\nclass = Died", fillcolor="#e58139aa"] ;
12 -> 14 ;
}